{
  "layout": "[feature][class]",
  "feature_dim": 32,
  "num_classes": 6,
  "class_names": [
    "Walking",
    "Jogging",
    "Upstairs",
    "Downstairs",
    "Sitting",
    "Standing"
  ],
  "weights": [
    [
      -0.49519118666648865,
      0.5505637526512146,
      0.4849405884742737,
      0.044363316148519516,
      0.24112015962600708,
      -0.5879172682762146
    ],
    [
      -0.8144491910934448,
      -0.6156718134880066,
      1.014920711517334,
      -0.0695272758603096,
      0.1992678940296173,
      -0.2691716253757477
    ],
    [
      -0.8245312571525574,
      0.25093862414360046,
      0.524646520614624,
      0.4025280177593231,
      0.27835774421691895,
      -0.21557505428791046
    ],
    [
      0.42295029759407043,
      0.5744442939758301,
      -0.14843086898326874,
      -0.45491543412208557,
      -0.4680923521518707,
      -0.05345902219414711
    ],
    [
      -0.44056639075279236,
      0.24019606411457062,
      -0.391322523355484,
      0.4744722843170166,
      -0.1530950367450714,
      -0.1759585291147232
    ],
    [
      -0.5366919040679932,
      0.5428004264831543,
      0.06098586320877075,
      0.3500870168209076,
      0.309486985206604,
      -0.4723457992076874
    ],
    [
      -0.3990880846977234,
      -0.6665825247764587,
      0.45474720001220703,
      0.08324988931417465,
      0.12557663023471832,
      0.3576969802379608
    ],
    [
      0.5041415095329285,
      0.11812370270490646,
      0.41184696555137634,
      -0.27021270990371704,
      -0.3675942122936249,
      0.10990916937589645
    ],
    [
      -0.18051105737686157,
      0.2543875277042389,
      0.025978872552514076,
      0.0438152477145195,
      -0.629924476146698,
      -0.6877344846725464
    ],
    [
      0.21478457748889923,
      0.12197472900152206,
      -0.29081955552101135,
      0.2596893310546875,
      -0.6079163551330566,
      -0.7015711069107056
    ],
    [
      -0.43250930309295654,
      -0.7644395232200623,
      0.17132803797721863,
      -0.0337337851524353,
      0.7086191177368164,
      0.37745824456214905
    ],
    [
      0.38103947043418884,
      -0.27152618765830994,
      0.16391053795814514,
      -0.42870765924453735,
      -0.3986301124095917,
      -0.1528153270483017
    ],
    [
      -0.28459060192108154,
      0.3278341591358185,
      0.2836698293685913,
      0.2590165436267853,
      0.2778130769729614,
      -0.8172585964202881
    ],
    [
      0.4223114550113678,
      -0.47297772765159607,
      0.454610675573349,
      0.43850192427635193,
      -0.4067230522632599,
      0.4587341547012329
    ],
    [
      0.06412482261657715,
      0.08339378237724304,
      0.4558773636817932,
      0.3204570412635803,
      -0.43524351716041565,
      0.0956118181347847
    ],
    [
      -0.09379095584154129,
      -1.0242568254470825,
      -0.14829610288143158,
      -0.9030224084854126,
      0.46238794922828674,
      0.6665637493133545
    ],
    [
      0.4767802059650421,
      -0.12513767182826996,
      -0.37772229313850403,
      -0.4465048611164093,
      -0.5960466265678406,
      -0.3834318220615387
    ],
    [
      0.31626245379447937,
      -0.052001290023326874,
      0.3510991930961609,
      -0.08871041983366013,
      0.10331729799509048,
      0.006271831225603819
    ],
    [
      -0.7434670329093933,
      -0.2680458128452301,
      0.2620663642883301,
      -0.06688965111970901,
      0.42409950494766235,
      0.23491907119750977
    ],
    [
      0.3237670660018921,
      -0.45086658000946045,
      -0.34671640396118164,
      0.41623565554618835,
      0.04566335678100586,
      -0.43246373534202576
    ],
    [
      0.3870090842247009,
      -0.4965178072452545,
      0.3227555751800537,
      -0.19867920875549316,
      0.19162003695964813,
      0.0727846622467041
    ],
    [
      0.3567659854888916,
      -0.5275607705116272,
      0.35451632738113403,
      -0.3986930847167969,
      0.07451111823320389,
      0.19070692360401154
    ],
    [
      -0.3842235207557678,
      0.6084697842597961,
      0.35889342427253723,
      -0.27806901931762695,
      -0.4969676733016968,
      -0.36331620812416077
    ],
    [
      0.5258761644363403,
      0.4522799849510193,
      -0.4752858281135559,
      -0.44861742854118347,
      -0.2679349184036255,
      0.08626363426446915
    ],
    [
      0.26252540946006775,
      0.29615798592567444,
      -0.4728054106235504,
      -0.25724369287490845,
      0.017571022734045982,
      -0.8993509411811829
    ],
    [
      0.23559366166591644,
      0.49122726917266846,
      -0.3792887330055237,
      0.12783899903297424,
      0.04604581370949745,
      -0.6657676100730896
    ],
    [
      -0.3269786536693573,
      0.027012305334210396,
      0.5001378059387207,
      -0.7658365964889526,
      0.31524258852005005,
      -0.47125115990638733
    ],
    [
      -0.6907045245170593,
      -0.8606501817703247,
      -0.0018992668483406305,
      0.14443741738796234,
      0.2557995021343231,
      0.2225276231765747
    ],
    [
      0.11109217256307602,
      0.06592778116464615,
      -0.2130410075187683,
      -0.008363069035112858,
      -0.4125443696975708,
      -0.7973948121070862
    ],
    [
      -0.9692481160163879,
      -0.32982534170150757,
      -0.3798467516899109,
      0.3504239320755005,
      0.4688932001590729,
      0.6132678389549255
    ],
    [
      0.1945423036813736,
      -0.4877382218837738,
      -0.3503890335559845,
      -0.16575676202774048,
      -0.5772850513458252,
      0.4686078727245331
    ],
    [
      0.6119869351387024,
      -0.30975958704948425,
      -0.3073536455631256,
      -0.16752636432647705,
      -0.39099881052970886,
      -0.598434329032898
    ]
  ],
  "bias": [
    -0.012053142301738262,
    -0.16973848640918732,
    0.07190009951591492,
    0.08719640225172043,
    0.010561440140008926,
    0.028742747381329536
  ]
}
