{
  "layout": "[feature][class]",
  "feature_dim": 32,
  "num_classes": 6,
  "class_names": [
    "Walking",
    "Jogging",
    "Upstairs",
    "Downstairs",
    "Sitting",
    "Standing"
  ],
  "weights": [
    [
      0.4783897399902344,
      0.48274219036102295,
      -0.26651084423065186,
      -0.2791421413421631,
      -0.2302217334508896,
      -0.8100951313972473
    ],
    [
      -0.6100044846534729,
      0.27773377299308777,
      0.3797382712364197,
      0.6303428411483765,
      -0.039001595228910446,
      -0.19442744553089142
    ],
    [
      -0.45378920435905457,
      -0.9280932545661926,
      -0.0484638512134552,
      0.021585682407021523,
      0.03381270542740822,
      0.22934119403362274
    ],
    [
      0.3996243476867676,
      -0.614266037940979,
      -0.37425193190574646,
      -0.1835932582616806,
      -0.31006214022636414,
      0.6361844539642334
    ],
    [
      -0.4904128611087799,
      0.23828870058059692,
      0.20261746644973755,
      -0.08896716684103012,
      -0.6140385270118713,
      -0.5789827108383179
    ],
    [
      0.45851731300354004,
      -0.31606897711753845,
      0.437186598777771,
      0.17689736187458038,
      -0.1935863047838211,
      0.40076321363449097
    ],
    [
      -0.5115891695022583,
      0.5005917549133301,
      -0.06268181651830673,
      0.3733343780040741,
      -0.4705224633216858,
      -0.6972721219062805
    ],
    [
      0.527468204498291,
      0.39405983686447144,
      -0.18665190041065216,
      -0.2120218425989151,
      -0.6063269376754761,
      -0.2419319450855255
    ],
    [
      0.37830427289009094,
      -0.754323422908783,
      0.3009216785430908,
      0.32492154836654663,
      0.28975313901901245,
      0.43873512744903564
    ],
    [
      0.5027188062667847,
      0.13770562410354614,
      -0.5078453421592712,
      -0.31284865736961365,
      -0.31228604912757874,
      -0.8775985240936279
    ],
    [
      -0.6063270568847656,
      -0.21290276944637299,
      0.6600281596183777,
      -0.3048509359359741,
      -0.23576602339744568,
      0.4231381416320801
    ],
    [
      0.05530775710940361,
      0.522910475730896,
      -0.12891940772533417,
      0.19648288190364838,
      -0.4876936674118042,
      -1.037546992301941
    ],
    [
      -0.19547495245933533,
      0.5267863869667053,
      -0.09530200064182281,
      0.2365778684616089,
      -0.19441601634025574,
      -1.018406867980957
    ],
    [
      -0.5292419195175171,
      0.02478799968957901,
      -0.25882717967033386,
      0.2991524934768677,
      -0.26933082938194275,
      0.5576840043067932
    ],
    [
      -0.06415751576423645,
      0.4858739376068115,
      0.19390758872032166,
      0.1707572340965271,
      0.0903548002243042,
      -0.8357373476028442
    ],
    [
      0.3739754557609558,
      0.4930199980735779,
      0.045081473886966705,
      -0.3565235435962677,
      -0.4374352693557739,
      -0.7456214427947998
    ],
    [
      0.5141420960426331,
      0.2391427606344223,
      -0.07810355722904205,
      0.2892945110797882,
      -0.7807307839393616,
      -0.868508517742157
    ],
    [
      -0.6113088726997375,
      -0.4010774791240692,
      0.7108753323554993,
      -0.09317836910486221,
      -0.42962005734443665,
      -0.0225093774497509
    ],
    [
      -0.6638582348823547,
      -0.647954523563385,
      0.2916302978992462,
      -0.3726983666419983,
      0.44779524207115173,
      -0.09933025389909744
    ],
    [
      0.4730760455131531,
      0.5941379070281982,
      -0.20853784680366516,
      0.12335173040628433,
      0.07561171054840088,
      -0.06700261682271957
    ],
    [
      0.326978474855423,
      -0.6769968271255493,
      0.2616919279098511,
      0.15012282133102417,
      -0.2522619068622589,
      0.5411959886550903
    ],
    [
      -0.6159293055534363,
      0.3144996762275696,
      -0.3546098470687866,
      0.4221150875091553,
      0.5554637908935547,
      -0.08504267781972885
    ],
    [
      -0.3175732493400574,
      0.3502689003944397,
      0.14034415781497955,
      -0.011365643702447414,
      -0.31061530113220215,
      -0.7481845021247864
    ],
    [
      -0.2772936224937439,
      0.10657905042171478,
      -0.2786930501461029,
      0.38629934191703796,
      0.05462750419974327,
      -1.0369757413864136
    ],
    [
      0.49434134364128113,
      0.4145551025867462,
      0.11071883887052536,
      0.15633507072925568,
      -0.04283646121621132,
      0.04491724818944931
    ],
    [
      0.7070280909538269,
      0.4474821090698242,
      -0.5257512331008911,
      -0.06561090052127838,
      -0.16111725568771362,
      0.15855084359645844
    ],
    [
      0.22981847822666168,
      -0.08269444108009338,
      0.10608541965484619,
      0.0970294401049614,
      -0.6013453602790833,
      -0.4647652506828308
    ],
    [
      -0.24598057568073273,
      0.42274799942970276,
      -0.10385815799236298,
      -0.5610042810440063,
      -0.06005100533366203,
      -0.9615715742111206
    ],
    [
      -0.4568048119544983,
      0.35008010268211365,
      0.4685748219490051,
      -0.19277311861515045,
      -0.03964652121067047,
      -1.0510920286178589
    ],
    [
      0.4989708364009857,
      -0.2814476490020752,
      -0.09508319199085236,
      -0.24933744966983795,
      -0.4617990255355835,
      0.4708303213119507
    ],
    [
      0.1132119670510292,
      -0.39417871832847595,
      0.2525164484977722,
      0.06370259076356888,
      0.6831625699996948,
      0.4285239279270172
    ],
    [
      -0.2141076624393463,
      -0.37865254282951355,
      -0.07728084921836853,
      0.4665296971797943,
      0.24075022339820862,
      -0.24429471790790558
    ]
  ],
  "bias": [
    -0.030748890712857246,
    -0.19926007091999054,
    0.06757158041000366,
    0.007295857649296522,
    0.07181405276060104,
    0.13347327709197998
  ]
}
