{
  "layout": "[feature][class]",
  "feature_dim": 32,
  "num_classes": 6,
  "class_names": [
    "Walking",
    "Jogging",
    "Upstairs",
    "Downstairs",
    "Sitting",
    "Standing"
  ],
  "weights": [
    [
      -0.09631404280662537,
      -0.6486573815345764,
      0.40357545018196106,
      -0.17698682844638824,
      -0.10799113661050797,
      0.1261969655752182
    ],
    [
      -0.18066492676734924,
      0.5924967527389526,
      0.22546210885047913,
      0.16794663667678833,
      -0.5213234424591064,
      -0.33910071849823
    ],
    [
      -0.5269066095352173,
      -0.28044962882995605,
      0.3316423296928406,
      -0.3811115026473999,
      0.3025054335594177,
      -0.15387871861457825
    ],
    [
      -0.027548693120479584,
      -0.6784917116165161,
      0.3087490200996399,
      0.3159324526786804,
      -0.2419699728488922,
      0.3025659918785095
    ],
    [
      -0.4639400541782379,
      0.09261183440685272,
      0.736705482006073,
      -0.8342662453651428,
      -0.3990289866924286,
      -0.5124034881591797
    ],
    [
      0.2868213355541229,
      0.5073583722114563,
      -0.07396966964006424,
      -0.11393599212169647,
      -0.5645543932914734,
      0.016530867666006088
    ],
    [
      -0.26805391907691956,
      0.021650956943631172,
      0.4687410891056061,
      -0.18446084856987,
      0.007894524373114109,
      0.5021136403083801
    ],
    [
      0.19435977935791016,
      -0.7156250476837158,
      -0.503502368927002,
      -0.008635910227894783,
      0.4725338816642761,
      -0.2665526270866394
    ],
    [
      0.24531221389770508,
      0.015997007489204407,
      -0.30328789353370667,
      0.0050313775427639484,
      -0.279399573802948,
      -0.7938795685768127
    ],
    [
      0.05076036602258682,
      -0.14081405103206635,
      -0.13503770530223846,
      0.4475339651107788,
      -0.4078972339630127,
      -0.5445635914802551
    ],
    [
      0.005237267352640629,
      0.503675103187561,
      -0.40331101417541504,
      -0.25032946467399597,
      -0.2953294515609741,
      -0.7089369297027588
    ],
    [
      0.3016141355037689,
      -0.3904770314693451,
      -0.2583126425743103,
      -0.5292247533798218,
      -0.2020251601934433,
      0.5314745306968689
    ],
    [
      0.7307003140449524,
      0.09931159019470215,
      -0.62433922290802,
      0.21142272651195526,
      -0.21160277724266052,
      -0.6638593077659607
    ],
    [
      0.7063548564910889,
      0.12356825172901154,
      -0.049595724791288376,
      -0.3709372282028198,
      0.06240404024720192,
      -0.34928032755851746
    ],
    [
      0.4468914866447449,
      0.4229029715061188,
      -0.026596486568450928,
      0.13463464379310608,
      -0.6078607439994812,
      -0.4329816401004791
    ],
    [
      0.11190059036016464,
      -0.639103889465332,
      -0.3701467216014862,
      -0.4806521534919739,
      0.6656603217124939,
      0.23630459606647491
    ],
    [
      0.23169733583927155,
      0.41541731357574463,
      0.1297934353351593,
      -0.3736294209957123,
      0.05312306433916092,
      -1.0140994787216187
    ],
    [
      -0.2873426675796509,
      -0.11532774567604065,
      0.10263605415821075,
      0.34979432821273804,
      -0.25998634099960327,
      0.13935282826423645
    ],
    [
      0.5481157898902893,
      -0.5085841417312622,
      0.19548015296459198,
      -0.4911131262779236,
      0.12041427940130234,
      0.6639091372489929
    ],
    [
      -0.5514659285545349,
      -0.21235740184783936,
      0.7232495546340942,
      -0.1255500763654709,
      0.27559706568717957,
      -0.5110889673233032
    ],
    [
      0.4500400125980377,
      -0.5380663275718689,
      0.3477195203304291,
      -0.37123215198516846,
      -0.0008034493075683713,
      -0.034375742077827454
    ],
    [
      -0.44116315245628357,
      -0.8044062256813049,
      0.07885473221540451,
      0.06845110654830933,
      0.23816561698913574,
      -0.0008275768486782908
    ],
    [
      0.2759578824043274,
      -0.5378026366233826,
      0.4229852557182312,
      -0.29884517192840576,
      0.1228255107998848,
      0.36072975397109985
    ],
    [
      0.5998560190200806,
      0.38470491766929626,
      -0.1096298024058342,
      -0.03797448053956032,
      0.10806804150342941,
      -0.6881427764892578
    ],
    [
      -0.49132782220840454,
      0.14598481357097626,
      -0.06376495212316513,
      0.0874137207865715,
      -0.10898450762033463,
      -0.9732428193092346
    ],
    [
      -0.2070562094449997,
      -0.34532463550567627,
      -0.28880470991134644,
      -0.47434791922569275,
      0.44387736916542053,
      -0.3939990997314453
    ],
    [
      0.2715816795825958,
      -0.616549551486969,
      0.13125671446323395,
      0.28153809905052185,
      0.2768103778362274,
      0.3649131655693054
    ],
    [
      -0.4055313467979431,
      -0.6598601341247559,
      0.2116122841835022,
      0.3553478717803955,
      0.4860198199748993,
      0.2840868830680847
    ],
    [
      -0.48943543434143066,
      0.3575039505958557,
      0.4632343649864197,
      0.30553120374679565,
      0.18177248537540436,
      -0.23697447776794434
    ],
    [
      0.5237233638763428,
      -0.06594807654619217,
      -0.3291485607624054,
      -0.19990494847297668,
      -0.13764213025569916,
      -0.3352475166320801
    ],
    [
      0.09876294434070587,
      0.2769327461719513,
      0.05654096603393555,
      0.11452709883451462,
      -0.5291732549667358,
      -0.6236010789871216
    ],
    [
      0.029609739780426025,
      -0.6963817477226257,
      -0.1052766814827919,
      0.19113367795944214,
      -0.33785510063171387,
      0.6284202337265015
    ]
  ],
  "bias": [
    -0.023993099108338356,
    -0.09723570197820663,
    0.04365356266498566,
    0.0775834247469902,
    -0.02576530911028385,
    0.05889854580163956
  ]
}
