{
  "layout": "[feature][class]",
  "feature_dim": 32,
  "num_classes": 6,
  "class_names": [
    "Walking",
    "Jogging",
    "Upstairs",
    "Downstairs",
    "Sitting",
    "Standing"
  ],
  "weights": [
    [
      -0.10144911706447601,
      -0.31361299753189087,
      -0.3297276496887207,
      0.009144479408860207,
      -0.14065656065940857,
      0.3408551514148712
    ],
    [
      0.20419558882713318,
      0.11690645664930344,
      -0.007126702927052975,
      0.21389152109622955,
      -0.4506673514842987,
      -0.29395073652267456
    ],
    [
      -0.5077411532402039,
      0.5009385943412781,
      0.22907967865467072,
      -0.2998937666416168,
      0.47970864176750183,
      -0.10496288537979126
    ],
    [
      0.06975515186786652,
      -0.34749338030815125,
      0.11574362963438034,
      -0.4738806188106537,
      -0.39030396938323975,
      0.1072528064250946
    ],
    [
      -0.3261989653110504,
      0.32624682784080505,
      -0.1318512111902237,
      0.03502803295850754,
      0.4111228585243225,
      -0.28111696243286133
    ],
    [
      -0.5081367492675781,
      0.2803470194339752,
      -0.23660066723823547,
      0.20090726017951965,
      -0.5771600008010864,
      -0.7670553922653198
    ],
    [
      -0.6947685480117798,
      0.6805680394172668,
      0.3154563009738922,
      -0.49495792388916016,
      -0.11690931767225266,
      -0.04247660934925079
    ],
    [
      0.24637563526630402,
      -0.7243065237998962,
      0.38846319913864136,
      0.0758809894323349,
      0.21870167553424835,
      0.28651025891304016
    ],
    [
      0.2292458415031433,
      0.1413021683692932,
      0.011664322577416897,
      0.243875190615654,
      -0.26292386651039124,
      -1.0102074146270752
    ],
    [
      -0.012672032229602337,
      -0.3450421988964081,
      0.41673386096954346,
      -0.5906677842140198,
      0.18605664372444153,
      -0.2009318619966507
    ],
    [
      0.4117808938026428,
      -0.2823435366153717,
      0.37110820412635803,
      0.28833091259002686,
      -0.2649388909339905,
      0.5509692430496216
    ],
    [
      -0.41429969668388367,
      0.7208854556083679,
      -0.12846218049526215,
      0.17072024941444397,
      -0.1989937424659729,
      -0.3926868140697479
    ],
    [
      -0.10778066515922546,
      0.5158848762512207,
      -0.09502691775560379,
      -0.32259514927864075,
      0.04042919725179672,
      -1.0728908777236938
    ],
    [
      0.17431078851222992,
      0.5142344832420349,
      0.3227936029434204,
      -0.14292293787002563,
      -0.3976355195045471,
      -0.3890116810798645
    ],
    [
      0.06336520612239838,
      0.09062345325946808,
      0.2784658372402191,
      0.17028363049030304,
      0.01758369617164135,
      0.30660632252693176
    ],
    [
      -0.8474452495574951,
      -0.10439491271972656,
      0.5402163863182068,
      -0.39976248145103455,
      0.1002429649233818,
      0.3305181860923767
    ],
    [
      -0.7445240020751953,
      0.3387186527252197,
      0.18610145151615143,
      0.3876500725746155,
      -0.15430472791194916,
      -0.8284565806388855
    ],
    [
      0.3876398205757141,
      0.3537890613079071,
      -0.34745803475379944,
      0.2714902460575104,
      -0.4230842590332031,
      -0.6492404937744141
    ],
    [
      -0.32347267866134644,
      -0.3448561728000641,
      0.4690568149089813,
      0.4551108181476593,
      0.6886937022209167,
      -0.021418187767267227
    ],
    [
      -0.569124698638916,
      -0.6078078746795654,
      0.3434796631336212,
      0.18432751297950745,
      0.22267359495162964,
      0.5101765990257263
    ],
    [
      0.30354347825050354,
      -0.5275343656539917,
      -0.23369930684566498,
      -0.2632235884666443,
      0.3320184350013733,
      0.30191928148269653
    ],
    [
      0.751055896282196,
      -0.40386438369750977,
      -0.48659348487854004,
      -0.5647651553153992,
      0.2029125839471817,
      0.16007910668849945
    ],
    [
      0.8274756669998169,
      0.5123258829116821,
      -0.16055351495742798,
      0.06031796708703041,
      -0.4669024348258972,
      -0.6032574772834778
    ],
    [
      0.5568182468414307,
      0.10654889047145844,
      -0.2867679297924042,
      0.18460536003112793,
      -0.442438542842865,
      -0.4406111240386963
    ],
    [
      0.21907709538936615,
      -0.14045006036758423,
      0.1442331224679947,
      -0.536440372467041,
      0.005975601729005575,
      0.4597506821155548
    ],
    [
      -0.7601349949836731,
      0.24001140892505646,
      0.3641090989112854,
      -0.009815048426389694,
      -0.09850125014781952,
      -0.4390850067138672
    ],
    [
      -0.20610485970973969,
      -0.01959037594497204,
      -0.1456044614315033,
      -0.8821108937263489,
      0.027116207405924797,
      0.33050456643104553
    ],
    [
      -0.8198768496513367,
      -0.9067054986953735,
      0.07875176519155502,
      0.5049850344657898,
      -0.1637992411851883,
      0.6676331162452698
    ],
    [
      0.2690960168838501,
      -0.33957573771476746,
      0.2429133504629135,
      -0.37558555603027344,
      -0.0748358741402626,
      -0.11745273321866989
    ],
    [
      0.4832410514354706,
      -0.4236304759979248,
      0.11520335078239441,
      -0.3085886836051941,
      0.022630032151937485,
      -0.17690561711788177
    ],
    [
      -0.16217856109142303,
      0.5103373527526855,
      0.25811320543289185,
      0.40671464800834656,
      -0.388648122549057,
      -0.20355816185474396
    ],
    [
      0.4483296275138855,
      -0.030141666531562805,
      -0.4929865598678589,
      0.12103187292814255,
      -0.13642296195030212,
      -0.05205122008919716
    ]
  ],
  "bias": [
    -0.016338730230927467,
    -0.18132467567920685,
    0.040486495941877365,
    0.08630821853876114,
    0.04299540817737579,
    0.06695786118507385
  ]
}
