{
  "layout": "[feature][class]",
  "feature_dim": 32,
  "num_classes": 6,
  "class_names": [
    "Walking",
    "Jogging",
    "Upstairs",
    "Downstairs",
    "Sitting",
    "Standing"
  ],
  "weights": [
    [
      -0.6523662209510803,
      0.262649804353714,
      0.7056399583816528,
      -0.2653524577617645,
      0.23696671426296234,
      -0.4036686420440674
    ],
    [
      0.6217345595359802,
      0.07617026567459106,
      -0.46004217863082886,
      -0.2657714784145355,
      0.0021200322080403566,
      0.09816308319568634
    ],
    [
      -0.033808059990406036,
      -0.7096844911575317,
      0.40439870953559875,
      0.27415701746940613,
      0.22779493033885956,
      0.4441940486431122
    ],
    [
      -0.31226420402526855,
      -0.2855195105075836,
      -0.2425178736448288,
      0.05370981991291046,
      0.009391316212713718,
      0.007897407747805119
    ],
    [
      -0.36790165305137634,
      0.07971654832363129,
      0.2666683495044708,
      -0.3156621754169464,
      -0.1599382609128952,
      -0.42513832449913025
    ],
    [
      0.14589810371398926,
      0.22604551911354065,
      -0.21193550527095795,
      0.3325684666633606,
      -0.7348263263702393,
      -0.1438460350036621
    ],
    [
      0.25066331028938293,
      -0.7344918251037598,
      0.21534794569015503,
      -0.2739485204219818,
      -0.004323920700699091,
      0.5016047954559326
    ],
    [
      -0.5517203211784363,
      -0.5134143233299255,
      -0.1680837720632553,
      0.49173927307128906,
      0.3670054078102112,
      0.06272972375154495
    ],
    [
      -0.7496119141578674,
      -1.0386661291122437,
      0.20421656966209412,
      -0.1495746672153473,
      0.43922048807144165,
      0.5882099270820618
    ],
    [
      -0.2916351556777954,
      0.46513330936431885,
      -0.5538938045501709,
      -0.39152607321739197,
      0.3054054081439972,
      -0.8980420827865601
    ],
    [
      0.11033141613006592,
      -0.012354000471532345,
      0.22697480022907257,
      0.3042432367801666,
      -0.3884637951850891,
      -0.542646586894989
    ],
    [
      -0.24458131194114685,
      -0.2960728406906128,
      -0.3782225251197815,
      0.3128795921802521,
      -0.14441925287246704,
      0.25869423151016235
    ],
    [
      0.5821564197540283,
      -0.3266223073005676,
      -0.27457311749458313,
      -0.3452514410018921,
      -0.4940297305583954,
      -0.10763350129127502
    ],
    [
      0.05651059374213219,
      -0.10013933479785919,
      -0.1643192023038864,
      -0.1308514028787613,
      -0.24882978200912476,
      -0.8583987355232239
    ],
    [
      0.002984160790219903,
      0.20164088904857635,
      0.12148110568523407,
      -0.2892918586730957,
      -0.5334139466285706,
      -0.7620518803596497
    ],
    [
      0.661747395992279,
      -0.4864846169948578,
      0.0349201038479805,
      -0.5611456632614136,
      0.009403987787663937,
      0.6943907141685486
    ],
    [
      -0.5615746378898621,
      0.08638707548379898,
      -0.23606589436531067,
      0.3304130434989929,
      -0.5334854125976562,
      -0.9220805764198303
    ],
    [
      0.5035086870193481,
      -0.5919750332832336,
      -0.17736919224262238,
      0.16665434837341309,
      0.14540480077266693,
      0.2877410352230072
    ],
    [
      -0.3663058280944824,
      0.14539344608783722,
      -0.24058689177036285,
      0.3958699107170105,
      0.5996467471122742,
      -0.5674441456794739
    ],
    [
      -0.5594431161880493,
      0.5370693802833557,
      0.10579381883144379,
      0.2635497450828552,
      -0.47230246663093567,
      -0.6498570442199707
    ],
    [
      -0.7079183459281921,
      -0.5216353535652161,
      0.21937043964862823,
      -0.6899064779281616,
      0.2523440718650818,
      0.9734929800033569
    ],
    [
      -0.9279930591583252,
      -0.4574095606803894,
      -0.008278004825115204,
      0.30435818433761597,
      0.5000244975090027,
      -0.18969374895095825
    ],
    [
      0.24401630461215973,
      -0.5651344656944275,
      0.17183494567871094,
      0.3839692771434784,
      -0.09997239708900452,
      -0.0309014730155468
    ],
    [
      -0.23162777721881866,
      0.510542094707489,
      -0.04522109404206276,
      -0.5534613728523254,
      0.0987638458609581,
      -0.8325780034065247
    ],
    [
      -0.3180896043777466,
      0.3761212229728699,
      -0.5016301870346069,
      -0.3710534870624542,
      -0.4589770436286926,
      -0.5020745992660522
    ],
    [
      -0.2393912523984909,
      0.561908483505249,
      -0.4060557782649994,
      -0.274758905172348,
      -0.06133167818188667,
      -1.1311129331588745
    ],
    [
      0.5586439967155457,
      -0.37254518270492554,
      0.007880336605012417,
      -0.07324501127004623,
      0.027789022773504257,
      0.17985528707504272
    ],
    [
      0.5381327271461487,
      0.04874035343527794,
      -0.3976038098335266,
      0.05790475010871887,
      -0.7041113376617432,
      -0.5277563333511353
    ],
    [
      -0.7201366424560547,
      0.37407195568084717,
      0.4112493395805359,
      0.09066887199878693,
      0.027016928419470787,
      -0.9649177193641663
    ],
    [
      0.08660241961479187,
      0.1203157901763916,
      0.4138410687446594,
      0.06175906956195831,
      -0.5348694324493408,
      -0.07118604332208633
    ],
    [
      -0.03151080012321472,
      0.6006972789764404,
      0.2982064485549927,
      -0.8080095648765564,
      0.013780330307781696,
      -0.09795594215393066
    ],
    [
      -0.7632299065589905,
      0.45929208397865295,
      0.6442137360572815,
      0.24775774776935577,
      -0.1936570405960083,
      0.08888370543718338
    ]
  ],
  "bias": [
    -0.000625010987278074,
    -0.17854821681976318,
    0.09386155754327774,
    0.06117509678006172,
    -0.06394831091165543,
    0.0916534960269928
  ]
}
